const json_teamsonly = {
    "sizes": [8, 4, 10],
    "layers": [{
        "SRH": {},
        "RCB": {},
        "RR": {},
        "KKR": {},
        "DC": {},
        "MI": {},
        "KXIP": {},
        "CSK": {}
    }, {
        "0": {
            "bias": 1.1897125244140625,
            "weights": {
                "SRH": -1.031887173652649,
                "RCB": -19.627098083496094,
                "RR": -2.322150468826294,
                "KKR": -2.072197198867798,
                "DC": 4.68056058883667,
                "MI": -2.2059686183929443,
                "KXIP": -1.5856083631515503,
                "CSK": 29.41385269165039
            }
        },
        "1": {
            "bias": -2.6511733531951904,
            "weights": {
                "SRH": -0.03641780465841293,
                "RCB": -1.2862628698349,
                "RR": 3.522603750228882,
                "KKR": 16.90278434753418,
                "DC": 0.33653023838996887,
                "MI": -27.675628662109375,
                "KXIP": -6.055253028869629,
                "CSK": 1.7319308519363403
            }
        },
        "2": {
            "bias": -3.112360954284668,
            "weights": {
                "SRH": 0.01838553324341774,
                "RCB": 0.39139771461486816,
                "RR": 11.564811706542969,
                "KKR": -15.803108215332031,
                "DC": 0.3749060034751892,
                "MI": -13.730557441711426,
                "KXIP": 4.822910308837891,
                "CSK": -3.1336703300476074
            }
        },
        "3": {
            "bias": -4.668053150177002,
            "weights": {
                "SRH": 26.85694122314453,
                "RCB": -11.269728660583496,
                "RR": -2.6311092376708984,
                "KKR": -1.7632884979248047,
                "DC": 8.638461112976074,
                "MI": -2.229292869567871,
                "KXIP": -6.592752456665039,
                "CSK": -34.21045684814453
            }
        }
    }, {
        "SRH": {
            "bias": -52.03794479370117,
            "weights": {
                "0": 0.15628939867019653,
                "1": -0.8304185271263123,
                "2": 1.2173784971237183,
                "3": 53.04299545288086
            }
        },
        "KKR": {
            "bias": -3.988389492034912,
            "weights": {
                "0": -0.853201687335968,
                "1": 5.124873638153076,
                "2": -25.523555755615234,
                "3": 0.5800009369850159
            }
        },
        "RCB": {
            "bias": 0.15616410970687866,
            "weights": {
                "0": -107.64552307128906,
                "1": -0.7587226033210754,
                "2": 0.31112536787986755,
                "3": -0.2352563738822937
            }
        },
        "MI": {
            "bias": 0.3233714997768402,
            "weights": {
                "0": -0.44274720549583435,
                "1": -56.812198638916016,
                "2": -56.89558029174805,
                "3": -0.9543142318725586
            }
        },
        "KXIP": {
            "bias": -2.7711498737335205,
            "weights": {
                "0": 0.8730449080467224,
                "1": -70.47383880615234,
                "2": 2.4496610164642334,
                "3": -0.7773013114929199
            }
        },
        "DD": {
            "bias": -11.947059631347656,
            "weights": {
                "0": 7.902248382568359,
                "1": -3.579741954803467,
                "2": 1.8644826412200928,
                "3": 2.80940580368042
            }
        },
        "RR": {
            "bias": -75.87493896484375,
            "weights": {
                "0": 0.4563187062740326,
                "1": -2.3885655403137207,
                "2": 76.60308074951172,
                "3": 0.2464449405670166
            }
        },
        "CSK": {
            "bias": -9.815589904785156,
            "weights": {
                "0": 10.073407173156738,
                "1": -0.024825982749462128,
                "2": 0.2756800055503845,
                "3": -64.11918640136719
            }
        },
        "NA": {
            "bias": -6.796621799468994,
            "weights": {
                "0": -11.338167190551758,
                "1": 1.5512242317199707,
                "2": 2.756575584411621,
                "3": -3.2150723934173584
            }
        },
        "DC": {
            "bias": -7.85920524597168,
            "weights": {
                "0": 3.980799913406372,
                "1": -0.6248013973236084,
                "2": -29.568313598632812,
                "3": 1.9728928804397583
            }
        }
    }],
    "outputLookup": true,
    "inputLookup": true,
    "activation": "sigmoid",
    "trainOpts": {
        "iterations": 20000,
        "errorThresh": 0.005,
        "log": true,
        "logPeriod": 10,
        "learningRate": 0.99,
        "momentum": 0.6,
        "callbackPeriod": 10,
        "beta1": 0.9,
        "beta2": 0.999,
        "epsilon": 1e-8
    }
};